<?xml version="1.0" encoding="ISO-8859-1"?>
<!-- This network was created in GeNIe Academic, which can be used for educational and research purposes only -->
<smile version="1.0" id="sub0" numsamples="10" discsamples="10">
	<nodes>
		<cpt id="Intensity_of_most_recent_known_viral_exposure">
			<state id="Heavy" />
			<state id="Light" />
			<state id="Negligible" />
			<probabilities>0.02 0.01 0.97</probabilities>
		</cpt>
		<cpt id="Days_since_most_recent_exposure">
			<state id="MoreThanSeven" />
			<state id="OneToSeven" />
			<state id="LessThan24hrs" />
			<probabilities>0.3 0.65 0.05</probabilities>
		</cpt>
		<cpt id="Age">
			<state id="YoungChild" />
			<state id="Adult" />
			<state id="OlderAdult" />
			<probabilities>0.05 0.65 0.3</probabilities>
		</cpt>
		<cpt id="Infected_by_exposure">
			<state id="True" />
			<state id="False" />
			<parents>Intensity_of_most_recent_known_viral_exposure</parents>
			<probabilities>0.8 0.2 0.1 0.9 0 1</probabilities>
		</cpt>
		<cpt id="Days_since_first_compatible_symptom_onset">
			<state id="MoreThanSix" />
			<state id="ZeroToSix" />
			<state id="NoSymptom" />
			<parents>Infected_by_exposure Days_since_most_recent_exposure Age</parents>
			<probabilities>0.5 0.4 0.1 0.7 0.25 0.05 0.8 0.19 0.01 0.001 0.5 0.499 0.001 0.7 0.299 0.001 0.8 0.199 0.001 0.008999999999999999 0.99 0.001 0.008999999999999999 0.99 0.001 0.008999999999999999 0.99 0.001 0.008999999999999999 0.99 0.001 0.008999999999999999 0.99 0.001 0.008999999999999999 0.99 0.001 0.008999999999999999 0.99 0.001 0.008999999999999999 0.99 0.001 0.008999999999999999 0.99 0.001 0.008999999999999999 0.99 0.001 0.008999999999999999 0.99 0.001 0.008999999999999999 0.99</probabilities>
		</cpt>
		<cpt id="Infected_now">
			<state id="True" />
			<state id="False" />
			<parents>Infected_by_exposure Days_since_most_recent_exposure Age</parents>
			<probabilities>0.7 0.3 0.9 0.1 0.99 0.01 0.9 0.1 0.95 0.05 0.99 0.01 0.999 0.001 0.999 0.001 0.999 0.001 0.001 0.999 0.001 0.999 0.001 0.999 0.001 0.999 0.001 0.999 0.001 0.999 0.001 0.999 0.001 0.999 0.001 0.999</probabilities>
		</cpt>
		<cpt id="Body_site_sampled">
			<state id="Nasopharyngeal" />
			<state id="SalivaMouth" />
			<state id="LowerAirway" />
			<state id="Faeces" />
			<probabilities>0.85 0.05 0.05 0.05</probabilities>
		</cpt>
		<cpt id="Viral_load_at_sample_site">
			<state id="High" />
			<state id="Moderate" />
			<state id="Low" />
			<state id="No" />
			<parents>Body_site_sampled Infected_now Days_since_first_compatible_symptom_onset Age</parents>
			<probabilities>0.2 0.4 0.4 0 0.3 0.5 0.2 0 0.6 0.35 0.05 0 0.4 0.4 0.2 0 0.5 0.3 0.2 0 0.6 0.35 0.05 0 0 0.1 0.9 0 0 0.1 0.9 0 0.05 0.4 0.55 0 0 0 0 1 0 0 0 1 0 0 0 1 0 0 0 1 0 0 0 1 0 0 0 1 0 0 0 1 0 0 0 1 0 0 0 1 0.2 0.4 0.4 0 0.3 0.5 0.2 0 0.6 0.35 0.05 0 0.4 0.4 0.2 0 0.5 0.3 0.2 0 0.6 0.35 0.05 0 0 0.1 0.9 0 0 0.1 0.9 0 0.05 0.4 0.55 0 0 0 0 1 0 0 0 1 0 0 0 1 0 0 0 1 0 0 0 1 0 0 0 1 0 0 0 1 0 0 0 1 0 0 0 1 0.4 0.4 0.2 0 0.4 0.4 0.2 0 0.6 0.35 0.05 0 0.2 0.4 0.4 0 0.3 0.5 0.2 0 0.4 0.3 0.3 0 0 0 0.01 0.99 0 0 0.01 0.99 0 0 0.01 0.99 0 0 0 1 0 0 0 1 0 0 0 1 0 0 0 1 0 0 0 1 0 0 0 1 0 0 0 1 0 0 0 1 0 0 0 1 0.2 0.4 0.4 0 0.3 0.5 0.2 0 0.6 0.35 0.05 0 0.1 0.3 0.6 0 0.1 0.3 0.6 0 0.1 0.3 0.6 0 0 0 0.01 0.99 0 0 0.01 0.99 0 0 0.01 0.99 0 0 0 1 0 0 0 1 0 0 0 1 0 0 0 1 0 0 0 1 0 0 0 1 0 0 0 1 0 0 0 1 0 0 0 1</probabilities>
		</cpt>
		<cpt id="Collection_performance">
			<state id="Good" />
			<state id="Poor" />
			<probabilities>0.9 0.1</probabilities>
		</cpt>
		<cpt id="Extraction_process">
			<state id="Automated" />
			<state id="Manual" />
			<probabilities>0.99 0.01</probabilities>
		</cpt>
		<cpt id="Swab_type">
			<state id="Flocked" />
			<state id="NonFlocked" />
			<state id="NotApplicable" />
			<parents>Body_site_sampled</parents>
			<probabilities>0.95 0.05 0 0.95 0.05 0 0 0 1 0 0 1</probabilities>
		</cpt>
		<cpt id="Specimen_quality">
			<state id="Good" />
			<state id="Poor" />
			<parents>Body_site_sampled Swab_type Collection_performance</parents>
			<probabilities>0.9 0.1 0.55 0.45 0.85 0.15 0.45 0.55 0.5 0.5 0.5 0.5 0.9 0.1 0.8 0.2 0.85 0.15 0.75 0.25 0.5 0.5 0.5 0.5 0.9 0.1 0.45 0.55 0.9 0.1 0.45 0.55 0.9 0.1 0.45 0.55 0.9 0.1 0.75 0.25 0.85 0.15 0.65 0.35 0.5 0.5 0.5 0.5</probabilities>
		</cpt>
		<cpt id="Quantity_of_virus_in_sample_pre_transit">
			<state id="High" />
			<state id="Moderate" />
			<state id="Low" />
			<state id="No" />
			<parents>Viral_load_at_sample_site Specimen_quality</parents>
			<probabilities>0.8 0.15 0.05 0 0.5 0.3 0.18 0.02 0 0.8 0.19 0.01 0 0.5 0.45 0.05 0 0 0.8 0.2 0 0 0.5 0.5 0 0 0 1 0 0 0 1</probabilities>
		</cpt>
		<cpt id="Conditions_of_transport">
			<state id="Good" />
			<state id="Poor" />
			<probabilities>0.99 0.01</probabilities>
		</cpt>
		<cpt id="Quantity_of_virus_in_sample_post_transit">
			<state id="High" />
			<state id="Moderate" />
			<state id="Low" />
			<state id="No" />
			<parents>Body_site_sampled Quantity_of_virus_in_sample_pre_transit Conditions_of_transport</parents>
			<probabilities>0.9 0.1 0 0 0.8 0.1 0.09 0.01 0 0.9 0.09 0.01 0 0.8 0.15 0.05 0 0 0.9 0.1 0 0 0.8 0.2 0 0 0 1 0 0 0 1 0.9 0.1 0 0 0.8 0.1 0.09 0.01 0 0.9 0.09 0.01 0 0.8 0.15 0.05 0 0 0.9 0.1 0 0 0.8 0.2 0 0 0 1 0 0 0 1 0.9 0.1 0 0 0.8 0.1 0.09 0.01 0 0.9 0.09 0.01 0 0.8 0.15 0.05 0 0 0.9 0.1 0 0 0.8 0.2 0 0 0 1 0 0 0 1 0.9 0.1 0 0 0.7 0.2 0.05 0.05 0 0.9 0.09 0.01 0 0.7 0.25 0.05 0 0 0.9 0.1 0 0 0.7 0.3 0 0 0 1 0 0 0 1</probabilities>
		</cpt>
		<cpt id="Operator_performance">
			<state id="Good" />
			<state id="Poor" />
			<probabilities>0.95 0.05</probabilities>
		</cpt>
		<cpt id="Extraction_efficiency">
			<state id="High" />
			<state id="Low" />
			<parents>Body_site_sampled Extraction_process Operator_performance</parents>
			<probabilities>0.999 0.001 0.99 0.01 0.99 0.01 0.9 0.1 0.999 0.001 0.99 0.01 0.99 0.01 0.9 0.1 0.99 0.01 0.95 0.05 0.98 0.02 0.85 0.15 0.95 0.05 0.9 0.1 0.93 0.07000000000000001 0.8 0.2</probabilities>
		</cpt>
		<cpt id="Quantity_of_viral_RNA_in_purified_sample">
			<state id="High" />
			<state id="Moderate" />
			<state id="Low" />
			<state id="No" />
			<parents>Quantity_of_virus_in_sample_post_transit Extraction_efficiency</parents>
			<probabilities>0.99 0.01 0 0 0.95 0.05 0 0 0 0.99 0.01 0 0 0.95 0.05 0 0 0 0.99 0.01 0 0 0.45 0.55 0 0 0 1 0 0 0 1</probabilities>
		</cpt>
		<cpt id="Match_of_primer_to_target">
			<state id="Good" />
			<state id="Poor" />
			<probabilities>0.999 0.001</probabilities>
		</cpt>
		<cpt id="Amplification_process">
			<state id="Automated" />
			<state id="Manual" />
			<probabilities>0.99 0.01</probabilities>
		</cpt>
		<cpt id="Inhibitors">
			<state id="Low" />
			<state id="High" />
			<parents>Body_site_sampled Extraction_process Operator_performance</parents>
			<probabilities>0.999 0.001 0.99 0.01 0.995 0.005 0.98 0.02 0.999 0.001 0.99 0.01 0.995 0.005 0.98 0.02 0.99 0.01 0.98 0.02 0.98 0.02 0.95 0.05 0.98 0.02 0.95 0.05 0.96 0.04 0.9 0.1</probabilities>
		</cpt>
		<cpt id="Amplification_efficiency">
			<state id="High" />
			<state id="Low" />
			<parents>Match_of_primer_to_target Amplification_process Inhibitors Operator_performance</parents>
			<probabilities>0.999 0.001 0.99 0.01 0.75 0.25 0.7 0.3 0.99 0.01 0.95 0.05 0.7 0.3 0.6 0.4 0.7 0.3 0.65 0.35 0.45 0.55 0.4 0.6 0.65 0.35 0.6 0.4 0.4 0.6 0.3 0.7</probabilities>
		</cpt>
		<cpt id="Quantity_of_target_in_amplified_sample">
			<state id="High" />
			<state id="Moderate" />
			<state id="Low" />
			<state id="No" />
			<parents>Quantity_of_viral_RNA_in_purified_sample Amplification_efficiency</parents>
			<probabilities>0.999 0.001 0 0 0.99 0.01 0 0 0.99 0.01 0 0 0.9 0.1 0 0 0.8 0.15 0.049 0.001 0.6 0.2 0.1 0.1 0 0 0 1 0 0 0 1</probabilities>
		</cpt>
		<cpt id="Detection_Ct_threshold">
			<state id="High" />
			<state id="Low" />
			<probabilities>0.99 0.01</probabilities>
		</cpt>
		<cpt id="Shared_target_with_non_targeted_organism">
			<state id="True" />
			<state id="False" />
			<probabilities>0.001 0.999</probabilities>
		</cpt>
		<cpt id="Detection_of_target">
			<state id="Detected" />
			<state id="NotDetected" />
			<parents>Quantity_of_target_in_amplified_sample Shared_target_with_non_targeted_organism Detection_Ct_threshold</parents>
			<probabilities>0.999 0.001 0.99 0.01 0.999 0.001 0.99 0.01 0.99 0.01 0.9 0.1 0.99 0.01 0.9 0.1 0.9 0.1 0.3 0.7 0.9 0.1 0.3 0.7 0.3 0.7 0.1 0.9 0.001 0.999 0 1</probabilities>
		</cpt>
		<cpt id="Amplification_quality_control">
			<state id="Pass" />
			<state id="Fail" />
			<parents>Extraction_efficiency Amplification_efficiency</parents>
			<probabilities>0.999 0.001 0.9 0.1 0.9 0.1 0.75 0.25</probabilities>
		</cpt>
		<cpt id="Specimen_quality_control">
			<state id="Pass" />
			<state id="Fail" />
			<parents>Specimen_quality Conditions_of_transport Extraction_efficiency</parents>
			<probabilities>0.99 0.01 0.5 0.5 0.9 0.1 0.45 0.55 0.4 0.6 0.3 0.7 0.2 0.8 0.1 0.9</probabilities>
		</cpt>
		<deterministic id="Lab_report">
			<state id="Positive" />
			<state id="Negative" />
			<state id="Indeterminate" />
			<parents>Detection_of_target Specimen_quality_control Amplification_quality_control</parents>
			<resultingstates>Positive Positive Positive Positive Negative Indeterminate Indeterminate Indeterminate</resultingstates>
		</deterministic>
		<cpt id="Copy_2_of_CovidInNP">
			<state id="HighDensity" />
			<state id="LowDensity" />
			<state id="Negligible" />
			<probabilities>0 0 1</probabilities>
		</cpt>
		<cpt id="Copy_3_of_CovidInNP">
			<state id="HighDensity" />
			<state id="LowDensity" />
			<state id="Negligible" />
			<probabilities>0 0 1</probabilities>
		</cpt>
		<cpt id="Copy_4_of_CovidInNP">
			<state id="HighDensity" />
			<state id="LowDensity" />
			<state id="Negligible" />
			<probabilities>0 0 1</probabilities>
		</cpt>
		<cpt id="Copy_5_of_CovidInNP">
			<state id="HighDensity" />
			<state id="LowDensity" />
			<state id="Negligible" />
			<probabilities>0 0 1</probabilities>
		</cpt>
		<deterministic id="Any_Symptoms_since_exposure">
			<state id="True" />
			<state id="False" />
			<parents>Days_since_first_compatible_symptom_onset</parents>
			<resultingstates>True True False</resultingstates>
		</deterministic>
		<cpt id="Predicted_classification">
			<state id="TruePos" />
			<state id="TrueNeg" />
			<state id="FalsePos" />
			<state id="FalseNeg" />
			<parents>Infected_now Detection_of_target</parents>
			<probabilities>1 0 0 0 0 0 0 1 0 0 1 0 0 1 0 0</probabilities>
		</cpt>
	</nodes>
	<extensions>
		<genie version="1.0" app="GeNIe 2.5.5408.0 ACADEMIC" name="Sub0" arccolor="003366">
			<submodel id="Submodel1">
				<name>Submodel1</name>
				<interior color="8080c0" />
				<outline color="8080c0" width="2" />
				<font color="8080c0" name="Arial" size="12" />
				<position>111 17 265 318</position>
				<window>66 281 1560 925</window>
			</submodel>
			<node id="Viral_load_at_sample_site">
				<name>Viral load at sample site (4)</name>
				<interior color="ffff99" />
				<outline color="0000bb" />
				<font color="000000" name="Arial" size="12" />
				<position>631 415 748 467</position>
				<barchart active="true" width="168" height="128" />
			</node>
			<node id="Intensity_of_most_recent_known_viral_exposure">
				<name>Intensity of most recent known viral exposure (1)</name>
				<interior color="ffff99" />
				<outline color="0000bb" />
				<font color="000000" name="Arial" size="12" />
				<position>614 33 769 99</position>
				<barchart active="true" width="217" height="114" />
			</node>
			<node id="Days_since_first_compatible_symptom_onset">
				<name>Days since first compatible symptom onset (13)</name>
				<interior color="ff99cc" />
				<outline color="0000bb" />
				<font color="000000" name="Arial" size="12" />
				<position>359 189 490 243</position>
				<barchart active="true" width="185" height="126" />
			</node>
			<node id="Collection_performance">
				<name>Collection performance (17)</name>
				<interior color="ffcc99" />
				<outline color="000080" />
				<font color="000000" name="Arial" size="12" />
				<position>153 494 275 541</position>
				<barchart active="true" width="178" height="89" />
			</node>
			<node id="Quantity_of_virus_in_sample_pre_transit">
				<name>Quantity of virus in sample (pre-transit) (5)</name>
				<interior color="ffff99" />
				<outline color="000080" />
				<font color="000000" name="Arial" size="12" />
				<position>631 589 757 661</position>
				<barchart active="true" width="204" height="132" />
			</node>
			<node id="Lab_report">
				<name>Laboratory report (30)</name>
				<interior color="ffcc99" />
				<outline color="0000bb" />
				<font color="000000" name="Arial" size="12" />
				<position>635 1300 756 1350</position>
				<barchart active="true" width="191" height="88" />
			</node>
			<textbox>
				<caption>.</caption>
				<font color="ff0000" name="Arial" size="12" />
				<position>65 1691 69 1709</position>
			</textbox>
			<node id="Infected_now">
				<name>Infected now (3)</name>
				<interior color="ffff99" />
				<outline color="0000bb" />
				<font color="000000" name="Arial" size="12" />
				<position>633 280 754 329</position>
				<barchart active="true" width="166" height="66" />
			</node>
			<node id="Body_site_sampled">
				<name>Body site sampled (15)</name>
				<interior color="ffcc99" />
				<outline color="0000bb" />
				<font color="000000" name="Arial" size="12" />
				<position>877 386 974 434</position>
				<barchart active="true" width="235" height="115" />
			</node>
			<node id="Swab_type">
				<name>Swab type (16)</name>
				<interior color="ffcc99" />
				<outline color="0000bb" />
				<font color="000000" name="Arial" size="12" />
				<position>372 498 481 539</position>
				<barchart active="true" width="198" height="88" />
			</node>
			<node id="Conditions_of_transport">
				<name>Conditions of transport (19)</name>
				<interior color="ffcc99" />
				<outline color="0000bb" />
				<font color="000000" name="Arial" size="12" />
				<position>360 733 485 785</position>
				<barchart active="true" width="167" height="86" />
			</node>
			<node id="Quantity_of_virus_in_sample_post_transit">
				<name>Quantity of virus in sample (post-transit) (6)</name>
				<interior color="ffff99" />
				<outline color="0000bb" />
				<font color="000000" name="Arial" size="12" />
				<position>629 741 766 823</position>
				<barchart active="true" width="200" height="129" />
			</node>
			<node id="Extraction_process">
				<name>Extraction process (21)</name>
				<interior color="ffcc99" />
				<outline color="0000bb" />
				<font color="000000" name="Arial" size="12" />
				<position>1113 546 1215 609</position>
				<barchart active="true" width="190" height="75" />
			</node>
			<node id="Quantity_of_viral_RNA_in_purified_sample">
				<name>Quantity of viral RNA in purified sample (7)</name>
				<interior color="ffff99" />
				<outline color="0000bb" />
				<font color="000000" name="Arial" size="12" />
				<position>639 898 762 974</position>
				<barchart active="true" width="191" height="129" />
			</node>
			<node id="Operator_performance">
				<name>Operator performance (22)</name>
				<interior color="ffcc99" />
				<outline color="0000bb" />
				<font color="000000" name="Arial" size="12" />
				<position>1208 649 1312 705</position>
				<barchart active="true" width="165" height="90" />
			</node>
			<node id="Amplification_process">
				<name>Amplification process (24)</name>
				<interior color="ffcc99" />
				<outline color="0000bb" />
				<font color="000000" name="Arial" size="12" />
				<position>1396 809 1500 865</position>
				<barchart active="true" width="172" height="86" />
			</node>
			<node id="Quantity_of_target_in_amplified_sample">
				<name>Quantity of target in amplified sample (8)</name>
				<interior color="ffff99" />
				<outline color="0000bb" />
				<font color="000000" name="Arial" size="12" />
				<position>630 1050 758 1130</position>
				<barchart active="true" width="181" height="130" />
			</node>
			<node id="Inhibitors">
				<name>Inhibitors (26)</name>
				<interior color="ffcc99" />
				<outline color="0000bb" />
				<font color="000000" name="Arial" size="12" />
				<position>1039 829 1148 870</position>
				<barchart active="true" width="162" height="66" />
			</node>
			<node id="Match_of_primer_to_target">
				<name>Match of primer to target (25)</name>
				<interior color="ffcc99" />
				<outline color="0000bb" />
				<font color="000000" name="Arial" size="12" />
				<position>1209 799 1319 867</position>
				<barchart active="true" width="165" height="87" />
			</node>
			<node id="Detection_of_target">
				<name>Detection of target (10)</name>
				<interior color="ffff99" />
				<outline color="0000bb" />
				<font color="000000" name="Arial" size="12" />
				<position>646 1196 757 1244</position>
				<barchart active="true" width="206" height="66" />
			</node>
			<node id="Amplification_efficiency">
				<name>Amplification efficiency (27)</name>
				<interior color="ccffff" />
				<outline color="0000bb" />
				<font color="000000" name="Arial" size="12" />
				<position>1045 932 1143 993</position>
				<barchart active="true" width="165" height="87" />
			</node>
			<node id="Amplification_quality_control">
				<name>Amplification quality control (28)</name>
				<interior color="ffcc99" />
				<outline color="0000bb" />
				<font color="000000" name="Arial" size="12" />
				<position>1037 1066 1150 1136</position>
				<comment>Need to improve this to reduce indeterminate</comment>
				<barchart active="true" width="164" height="87" />
			</node>
			<node id="Specimen_quality_control">
				<name>Specimen adequacy control (20)</name>
				<interior color="ffcc99" />
				<outline color="0000bb" />
				<font color="000000" name="Arial" size="12" />
				<position>178 932 311 990</position>
				<barchart active="true" width="177" height="90" />
			</node>
			<node id="Specimen_quality">
				<name>ÅSpecimen quality (18)</name>
				<interior color="ccffff" />
				<outline color="0000bb" />
				<font color="000000" name="Arial" size="12" />
				<position>369 592 470 655</position>
				<barchart active="true" width="181" height="72" />
			</node>
			<node id="Extraction_efficiency">
				<name>Extraction efficiency (23)</name>
				<interior color="ccffff" />
				<outline color="0000bb" />
				<font color="000000" name="Arial" size="12" />
				<position>874 769 975 832</position>
				<barchart active="true" width="164" height="91" />
			</node>
			<node id="Detection_Ct_threshold">
				<name>Detection Ct threshold (29)</name>
				<interior color="ffcc99" />
				<outline color="0000bb" />
				<font color="000000" name="Arial" size="12" />
				<position>862 1073 963 1132</position>
				<barchart active="true" width="162" height="88" />
			</node>
			<node id="Days_since_most_recent_exposure">
				<name>Days since most recent exposure (12)</name>
				<interior color="ff99cc" />
				<outline color="0000bb" />
				<font color="000000" name="Arial" size="12" />
				<position>367 37 494 95</position>
				<barchart active="true" width="250" height="112" />
			</node>
			<node id="Shared_target_with_non_targeted_organism">
				<name>Shared target with non-targeted organism (9)</name>
				<interior color="ffff99" />
				<outline color="0000bb" />
				<font color="000000" name="Arial" size="12" />
				<position>409 1005 547 1081</position>
				<barchart active="true" width="164" height="105" />
			</node>
			<node id="Copy_3_of_CovidInNP">
				<name>Latent concept</name>
				<interior color="ccffff" />
				<outline color="0000bb" />
				<font color="000000" name="Arial" size="12" />
				<position>126 166 258 233</position>
				<barchart width="141" height="101" />
			</node>
			<node id="Copy_4_of_CovidInNP">
				<name>Laboratory procedure</name>
				<interior color="ffcc99" />
				<outline color="0000bb" />
				<font color="000000" name="Arial" size="12" />
				<position>120 97 257 165</position>
				<barchart width="141" height="101" />
			</node>
			<node id="Copy_5_of_CovidInNP">
				<name>Pre-testing factor</name>
				<interior color="ff99cc" />
				<outline color="0000bb" />
				<font color="000000" name="Arial" size="12" />
				<position>123 233 258 299</position>
				<barchart width="141" height="101" />
			</node>
			<node id="Copy_2_of_CovidInNP">
				<name>Trajectory of SARS-CoV-2</name>
				<interior color="ffff99" />
				<outline color="0000bb" />
				<font color="000000" name="Arial" size="12" />
				<position>120 24 258 97</position>
				<barchart width="141" height="101" />
			</node>
			<textbox>
				<caption>Authors: COVID Intelligence (see testing model description_v5 for expert contributors and further model details)\nAffiliated institutions: Monash University, University of Sydney, Telethon Kids Institute\nLast update: 18 November 2020\nThis work is licensed under a Creative Commons Attribution-ShareAlike 4.0 International License. ( https://creativecommons.org/licenses/by-sa/4.0/ ) \n</caption>
				<font color="333399" name="Arial" size="12" />
				<position>1071 19 1417 181</position>
			</textbox>
			<node id="Age">
				<name>Age (11)</name>
				<interior color="ff99cc" />
				<outline color="0000bb" />
				<font color="000000" name="Arial" size="12" />
				<position>905 36 1021 89</position>
				<barchart active="true" width="188" height="88" />
				<defcomment row="0" col="0">e.g., &lt;12</defcomment>
				<defcomment row="2" col="0">&gt;60</defcomment>
			</node>
			<node id="Infected_by_exposure">
				<name>Infected by exposure (2)</name>
				<interior color="ffff99" />
				<outline color="0000bb" />
				<font color="000000" name="Arial" size="12" />
				<position>633 171 759 221</position>
				<barchart active="true" width="165" height="85" />
			</node>
			<node id="Any_Symptoms_since_exposure">
				<name>Any symptoms since exposure (14)</name>
				<interior color="ff99cc" />
				<outline color="000080" />
				<font color="000000" name="Arial" size="12" />
				<position>362 320 491 392</position>
				<barchart active="true" width="173" height="94" />
			</node>
			<node id="Predicted_classification">
				<name>Predicted classification (31)</name>
				<interior color="ccffff" />
				<outline color="0000ff" width="3" />
				<font color="000000" name="Arial" size="12" bold="true" />
				<position>202 1249 321 1300</position>
				<barchart active="true" width="252" height="183" />
			</node>
		</genie>
	</extensions>
</smile>
